digraph Tree {
node [shape=box, style="filled, rounded", color="black", fontname="helvetica"] ;
edge [fontname="helvetica"] ;
0 [label=<Total day charge &le; 44.96<br/>gini = 0.248<br/>samples = 3333<br/>value = [2850, 483]<br/>class = False>, fillcolor="#e9965b"] ;
1 [label=<Customer service calls &le; 3.5<br/>gini = 0.202<br/>samples = 3122<br/>value = [2766, 356]<br/>class = False>, fillcolor="#e89152"] ;
0 -> 1 [labeldistance=2.5, labelangle=45, headlabel="True"] ;
2 [label=<International plan_No &le; 0.5<br/>gini = 0.147<br/>samples = 2871<br/>value = [2642, 229]<br/>class = False>, fillcolor="#e78c4a"] ;
1 -> 2 ;
3 [label=<Total intl calls &le; 2.5<br/>gini = 0.47<br/>samples = 267<br/>value = [166, 101]<br/>class = False>, fillcolor="#f5ceb1"] ;
2 -> 3 ;
4 [label=<gini = 0.0<br/>samples = 51<br/>value = [0, 51]<br/>class = True>, fillcolor="#399de5"] ;
3 -> 4 ;
5 [label=<Total intl minutes &le; 13.1<br/>gini = 0.356<br/>samples = 216<br/>value = [166, 50]<br/>class = False>, fillcolor="#eda775"] ;
3 -> 5 ;
6 [label=<Total day minutes &le; 251.9<br/>gini = 0.078<br/>samples = 173<br/>value = [166, 7]<br/>class = False>, fillcolor="#e68641"] ;
5 -> 6 ;
7 [label=<Total eve minutes &le; 324.85<br/>gini = 0.036<br/>samples = 162<br/>value = [159, 3]<br/>class = False>, fillcolor="#e5833d"] ;
6 -> 7 ;
8 [label=<Total night charge &le; 3.77<br/>gini = 0.012<br/>samples = 159<br/>value = [158, 1]<br/>class = False>, fillcolor="#e5823a"] ;
7 -> 8 ;
9 [label=<gini = 0.0<br/>samples = 1<br/>value = [0, 1]<br/>class = True>, fillcolor="#399de5"] ;
8 -> 9 ;
10 [label=<gini = 0.0<br/>samples = 158<br/>value = [158, 0]<br/>class = False>, fillcolor="#e58139"] ;
8 -> 10 ;
11 [label=<Total eve calls &le; 113.0<br/>gini = 0.444<br/>samples = 3<br/>value = [1, 2]<br/>class = True>, fillcolor="#9ccef2"] ;
7 -> 11 ;
12 [label=<gini = 0.0<br/>samples = 2<br/>value = [0, 2]<br/>class = True>, fillcolor="#399de5"] ;
11 -> 12 ;
13 [label=<gini = 0.0<br/>samples = 1<br/>value = [1, 0]<br/>class = False>, fillcolor="#e58139"] ;
11 -> 13 ;
14 [label=<Total eve minutes &le; 245.75<br/>gini = 0.463<br/>samples = 11<br/>value = [7, 4]<br/>class = False>, fillcolor="#f4c9aa"] ;
6 -> 14 ;
15 [label=<Total day minutes &le; 253.2<br/>gini = 0.219<br/>samples = 8<br/>value = [7, 1]<br/>class = False>, fillcolor="#e99355"] ;
14 -> 15 ;
16 [label=<gini = 0.0<br/>samples = 1<br/>value = [0, 1]<br/>class = True>, fillcolor="#399de5"] ;
15 -> 16 ;
17 [label=<gini = 0.0<br/>samples = 7<br/>value = [7, 0]<br/>class = False>, fillcolor="#e58139"] ;
15 -> 17 ;
18 [label=<gini = 0.0<br/>samples = 3<br/>value = [0, 3]<br/>class = True>, fillcolor="#399de5"] ;
14 -> 18 ;
19 [label=<gini = 0.0<br/>samples = 43<br/>value = [0, 43]<br/>class = True>, fillcolor="#399de5"] ;
5 -> 19 ;
20 [label=<Total day minutes &le; 223.25<br/>gini = 0.093<br/>samples = 2604<br/>value = [2476, 128]<br/>class = False>, fillcolor="#e68843"] ;
2 -> 20 ;
21 [label=<Total eve charge &le; 27.985<br/>gini = 0.053<br/>samples = 2221<br/>value = [2161, 60]<br/>class = False>, fillcolor="#e6843e"] ;
20 -> 21 ;
22 [label=<Account length &le; 224.5<br/>gini = 0.05<br/>samples = 2209<br/>value = [2152, 57]<br/>class = False>, fillcolor="#e6843e"] ;
21 -> 22 ;
23 [label=<State_TX &le; 0.5<br/>gini = 0.05<br/>samples = 2205<br/>value = [2149, 56]<br/>class = False>, fillcolor="#e6843e"] ;
22 -> 23 ;
24 [label=<Number vmail messages &le; 43.5<br/>gini = 0.047<br/>samples = 2159<br/>value = [2107, 52]<br/>class = False>, fillcolor="#e6843e"] ;
23 -> 24 ;
25 [label=<Total night calls &le; 104.5<br/>gini = 0.046<br/>samples = 2144<br/>value = [2094, 50]<br/>class = False>, fillcolor="#e6843e"] ;
24 -> 25 ;
26 [label=<Total night minutes &le; 353.55<br/>gini = 0.032<br/>samples = 1245<br/>value = [1225, 20]<br/>class = False>, fillcolor="#e5833c"] ;
25 -> 26 ;
27 [label=<Total day charge &le; 36.05<br/>gini = 0.03<br/>samples = 1242<br/>value = [1223, 19]<br/>class = False>, fillcolor="#e5833c"] ;
26 -> 27 ;
28 [label=<Total intl calls &le; 14.5<br/>gini = 0.023<br/>samples = 1141<br/>value = [1128, 13]<br/>class = False>, fillcolor="#e5823b"] ;
27 -> 28 ;
29 [label=<State_DC &le; 0.5<br/>gini = 0.021<br/>samples = 1136<br/>value = [1124, 12]<br/>class = False>, fillcolor="#e5823b"] ;
28 -> 29 ;
30 [label=<Total day calls &le; 125.5<br/>gini = 0.018<br/>samples = 1114<br/>value = [1104, 10]<br/>class = False>, fillcolor="#e5823b"] ;
29 -> 30 ;
31 [label=<State_NC &le; 0.5<br/>gini = 0.012<br/>samples = 1003<br/>value = [997, 6]<br/>class = False>, fillcolor="#e5823a"] ;
30 -> 31 ;
32 [label=<State_RI &le; 0.5<br/>gini = 0.01<br/>samples = 989<br/>value = [984, 5]<br/>class = False>, fillcolor="#e5823a"] ;
31 -> 32 ;
33 [label=<State_LA &le; 0.5<br/>gini = 0.008<br/>samples = 973<br/>value = [969, 4]<br/>class = False>, fillcolor="#e5823a"] ;
32 -> 33 ;
34 [label=<State_IN &le; 0.5<br/>gini = 0.006<br/>samples = 956<br/>value = [953, 3]<br/>class = False>, fillcolor="#e5813a"] ;
33 -> 34 ;
35 [label=<State_MN &le; 0.5<br/>gini = 0.004<br/>samples = 938<br/>value = [936, 2]<br/>class = False>, fillcolor="#e58139"] ;
34 -> 35 ;
36 [label=<State_ME &le; 0.5<br/>gini = 0.002<br/>samples = 917<br/>value = [916, 1]<br/>class = False>, fillcolor="#e58139"] ;
35 -> 36 ;
37 [label=<gini = 0.0<br/>samples = 896<br/>value = [896, 0]<br/>class = False>, fillcolor="#e58139"] ;
36 -> 37 ;
38 [label=<Total night calls &le; 73.5<br/>gini = 0.091<br/>samples = 21<br/>value = [20, 1]<br/>class = False>, fillcolor="#e68743"] ;
36 -> 38 ;
39 [label=<Total eve calls &le; 99.0<br/>gini = 0.5<br/>samples = 2<br/>value = [1, 1]<br/>class = False>, fillcolor="#ffffff"] ;
38 -> 39 ;
40 [label=<gini = 0.0<br/>samples = 1<br/>value = [0, 1]<br/>class = True>, fillcolor="#399de5"] ;
39 -> 40 ;
41 [label=<gini = 0.0<br/>samples = 1<br/>value = [1, 0]<br/>class = False>, fillcolor="#e58139"] ;
39 -> 41 ;
42 [label=<gini = 0.0<br/>samples = 19<br/>value = [19, 0]<br/>class = False>, fillcolor="#e58139"] ;
38 -> 42 ;
43 [label=<Total night calls &le; 102.0<br/>gini = 0.091<br/>samples = 21<br/>value = [20, 1]<br/>class = False>, fillcolor="#e68743"] ;
35 -> 43 ;
44 [label=<gini = 0.0<br/>samples = 20<br/>value = [20, 0]<br/>class = False>, fillcolor="#e58139"] ;
43 -> 44 ;
45 [label=<gini = 0.0<br/>samples = 1<br/>value = [0, 1]<br/>class = True>, fillcolor="#399de5"] ;
43 -> 45 ;
46 [label=<Total day calls &le; 118.5<br/>gini = 0.105<br/>samples = 18<br/>value = [17, 1]<br/>class = False>, fillcolor="#e78845"] ;
34 -> 46 ;
47 [label=<gini = 0.0<br/>samples = 16<br/>value = [16, 0]<br/>class = False>, fillcolor="#e58139"] ;
46 -> 47 ;
48 [label=<Total intl calls &le; 5.0<br/>gini = 0.5<br/>samples = 2<br/>value = [1, 1]<br/>class = False>, fillcolor="#ffffff"] ;
46 -> 48 ;
49 [label=<gini = 0.0<br/>samples = 1<br/>value = [1, 0]<br/>class = False>, fillcolor="#e58139"] ;
48 -> 49 ;
50 [label=<gini = 0.0<br/>samples = 1<br/>value = [0, 1]<br/>class = True>, fillcolor="#399de5"] ;
48 -> 50 ;
51 [label=<Total day calls &le; 86.0<br/>gini = 0.111<br/>samples = 17<br/>value = [16, 1]<br/>class = False>, fillcolor="#e78945"] ;
33 -> 51 ;
52 [label=<Total night minutes &le; 194.0<br/>gini = 0.444<br/>samples = 3<br/>value = [2, 1]<br/>class = False>, fillcolor="#f2c09c"] ;
51 -> 52 ;
53 [label=<gini = 0.0<br/>samples = 2<br/>value = [2, 0]<br/>class = False>, fillcolor="#e58139"] ;
52 -> 53 ;
54 [label=<gini = 0.0<br/>samples = 1<br/>value = [0, 1]<br/>class = True>, fillcolor="#399de5"] ;
52 -> 54 ;
55 [label=<gini = 0.0<br/>samples = 14<br/>value = [14, 0]<br/>class = False>, fillcolor="#e58139"] ;
51 -> 55 ;
56 [label=<Total night calls &le; 67.0<br/>gini = 0.117<br/>samples = 16<br/>value = [15, 1]<br/>class = False>, fillcolor="#e78946"] ;
32 -> 56 ;
57 [label=<Total night minutes &le; 187.55<br/>gini = 0.5<br/>samples = 2<br/>value = [1, 1]<br/>class = False>, fillcolor="#ffffff"] ;
56 -> 57 ;
58 [label=<gini = 0.0<br/>samples = 1<br/>value = [0, 1]<br/>class = True>, fillcolor="#399de5"] ;
57 -> 58 ;
59 [label=<gini = 0.0<br/>samples = 1<br/>value = [1, 0]<br/>class = False>, fillcolor="#e58139"] ;
57 -> 59 ;
60 [label=<gini = 0.0<br/>samples = 14<br/>value = [14, 0]<br/>class = False>, fillcolor="#e58139"] ;
56 -> 60 ;
61 [label=<Total intl minutes &le; 12.4<br/>gini = 0.133<br/>samples = 14<br/>value = [13, 1]<br/>class = False>, fillcolor="#e78b48"] ;
31 -> 61 ;
62 [label=<gini = 0.0<br/>samples = 12<br/>value = [12, 0]<br/>class = False>, fillcolor="#e58139"] ;
61 -> 62 ;
63 [label=<Area code &le; 462.5<br/>gini = 0.5<br/>samples = 2<br/>value = [1, 1]<br/>class = False>, fillcolor="#ffffff"] ;
61 -> 63 ;
64 [label=<gini = 0.0<br/>samples = 1<br/>value = [1, 0]<br/>class = False>, fillcolor="#e58139"] ;
63 -> 64 ;
65 [label=<gini = 0.0<br/>samples = 1<br/>value = [0, 1]<br/>class = True>, fillcolor="#399de5"] ;
63 -> 65 ;
66 [label=<State_CO &le; 0.5<br/>gini = 0.069<br/>samples = 111<br/>value = [107, 4]<br/>class = False>, fillcolor="#e68640"] ;
30 -> 66 ;
67 [label=<State_SC &le; 0.5<br/>gini = 0.054<br/>samples = 109<br/>value = [106, 3]<br/>class = False>, fillcolor="#e6853f"] ;
66 -> 67 ;
68 [label=<State_MT &le; 0.5<br/>gini = 0.037<br/>samples = 107<br/>value = [105, 2]<br/>class = False>, fillcolor="#e5833d"] ;
67 -> 68 ;
69 [label=<State_OH &le; 0.5<br/>gini = 0.019<br/>samples = 103<br/>value = [102, 1]<br/>class = False>, fillcolor="#e5823b"] ;
68 -> 69 ;
70 [label=<gini = 0.0<br/>samples = 99<br/>value = [99, 0]<br/>class = False>, fillcolor="#e58139"] ;
69 -> 70 ;
71 [label=<Total eve calls &le; 110.5<br/>gini = 0.375<br/>samples = 4<br/>value = [3, 1]<br/>class = False>, fillcolor="#eeab7b"] ;
69 -> 71 ;
72 [label=<gini = 0.0<br/>samples = 3<br/>value = [3, 0]<br/>class = False>, fillcolor="#e58139"] ;
71 -> 72 ;
73 [label=<gini = 0.0<br/>samples = 1<br/>value = [0, 1]<br/>class = True>, fillcolor="#399de5"] ;
71 -> 73 ;
74 [label=<Voice mail plan_Yes &le; 0.5<br/>gini = 0.375<br/>samples = 4<br/>value = [3, 1]<br/>class = False>, fillcolor="#eeab7b"] ;
68 -> 74 ;
75 [label=<gini = 0.0<br/>samples = 3<br/>value = [3, 0]<br/>class = False>, fillcolor="#e58139"] ;
74 -> 75 ;
76 [label=<gini = 0.0<br/>samples = 1<br/>value = [0, 1]<br/>class = True>, fillcolor="#399de5"] ;
74 -> 76 ;
77 [label=<Total day minutes &le; 126.95<br/>gini = 0.5<br/>samples = 2<br/>value = [1, 1]<br/>class = False>, fillcolor="#ffffff"] ;
67 -> 77 ;
78 [label=<gini = 0.0<br/>samples = 1<br/>value = [1, 0]<br/>class = False>, fillcolor="#e58139"] ;
77 -> 78 ;
79 [label=<gini = 0.0<br/>samples = 1<br/>value = [0, 1]<br/>class = True>, fillcolor="#399de5"] ;
77 -> 79 ;
80 [label=<Total intl minutes &le; 9.25<br/>gini = 0.5<br/>samples = 2<br/>value = [1, 1]<br/>class = False>, fillcolor="#ffffff"] ;
66 -> 80 ;
81 [label=<gini = 0.0<br/>samples = 1<br/>value = [0, 1]<br/>class = True>, fillcolor="#399de5"] ;
80 -> 81 ;
82 [label=<gini = 0.0<br/>samples = 1<br/>value = [1, 0]<br/>class = False>, fillcolor="#e58139"] ;
80 -> 82 ;
83 [label=<Total eve calls &le; 91.5<br/>gini = 0.165<br/>samples = 22<br/>value = [20, 2]<br/>class = False>, fillcolor="#e88e4d"] ;
29 -> 83 ;
84 [label=<Total eve minutes &le; 228.3<br/>gini = 0.444<br/>samples = 3<br/>value = [1, 2]<br/>class = True>, fillcolor="#9ccef2"] ;
83 -> 84 ;
85 [label=<gini = 0.0<br/>samples = 2<br/>value = [0, 2]<br/>class = True>, fillcolor="#399de5"] ;
84 -> 85 ;
86 [label=<gini = 0.0<br/>samples = 1<br/>value = [1, 0]<br/>class = False>, fillcolor="#e58139"] ;
84 -> 86 ;
87 [label=<gini = 0.0<br/>samples = 19<br/>value = [19, 0]<br/>class = False>, fillcolor="#e58139"] ;
83 -> 87 ;
88 [label=<Account length &le; 93.5<br/>gini = 0.32<br/>samples = 5<br/>value = [4, 1]<br/>class = False>, fillcolor="#eca06a"] ;
28 -> 88 ;
89 [label=<gini = 0.0<br/>samples = 1<br/>value = [0, 1]<br/>class = True>, fillcolor="#399de5"] ;
88 -> 89 ;
90 [label=<gini = 0.0<br/>samples = 4<br/>value = [4, 0]<br/>class = False>, fillcolor="#e58139"] ;
88 -> 90 ;
91 [label=<Number vmail messages &le; 40.0<br/>gini = 0.112<br/>samples = 101<br/>value = [95, 6]<br/>class = False>, fillcolor="#e78946"] ;
27 -> 91 ;
92 [label=<Total eve charge &le; 23.45<br/>gini = 0.095<br/>samples = 100<br/>value = [95, 5]<br/>class = False>, fillcolor="#e68843"] ;
91 -> 92 ;
93 [label=<State_MS &le; 0.5<br/>gini = 0.061<br/>samples = 95<br/>value = [92, 3]<br/>class = False>, fillcolor="#e6853f"] ;
92 -> 93 ;
94 [label=<State_UT &le; 0.5<br/>gini = 0.042<br/>samples = 93<br/>value = [91, 2]<br/>class = False>, fillcolor="#e6843d"] ;
93 -> 94 ;
95 [label=<Total night minutes &le; 276.45<br/>gini = 0.022<br/>samples = 91<br/>value = [90, 1]<br/>class = False>, fillcolor="#e5823b"] ;
94 -> 95 ;
96 [label=<gini = 0.0<br/>samples = 85<br/>value = [85, 0]<br/>class = False>, fillcolor="#e58139"] ;
95 -> 96 ;
97 [label=<Total night charge &le; 12.49<br/>gini = 0.278<br/>samples = 6<br/>value = [5, 1]<br/>class = False>, fillcolor="#ea9a61"] ;
95 -> 97 ;
98 [label=<gini = 0.0<br/>samples = 1<br/>value = [0, 1]<br/>class = True>, fillcolor="#399de5"] ;
97 -> 98 ;
99 [label=<gini = 0.0<br/>samples = 5<br/>value = [5, 0]<br/>class = False>, fillcolor="#e58139"] ;
97 -> 99 ;
100 [label=<Account length &le; 134.5<br/>gini = 0.5<br/>samples = 2<br/>value = [1, 1]<br/>class = False>, fillcolor="#ffffff"] ;
94 -> 100 ;
101 [label=<gini = 0.0<br/>samples = 1<br/>value = [0, 1]<br/>class = True>, fillcolor="#399de5"] ;
100 -> 101 ;
102 [label=<gini = 0.0<br/>samples = 1<br/>value = [1, 0]<br/>class = False>, fillcolor="#e58139"] ;
100 -> 102 ;
103 [label=<Total intl minutes &le; 8.3<br/>gini = 0.5<br/>samples = 2<br/>value = [1, 1]<br/>class = False>, fillcolor="#ffffff"] ;
93 -> 103 ;
104 [label=<gini = 0.0<br/>samples = 1<br/>value = [0, 1]<br/>class = True>, fillcolor="#399de5"] ;
103 -> 104 ;
105 [label=<gini = 0.0<br/>samples = 1<br/>value = [1, 0]<br/>class = False>, fillcolor="#e58139"] ;
103 -> 105 ;
106 [label=<Total eve minutes &le; 282.1<br/>gini = 0.48<br/>samples = 5<br/>value = [3, 2]<br/>class = False>, fillcolor="#f6d5bd"] ;
92 -> 106 ;
107 [label=<gini = 0.0<br/>samples = 2<br/>value = [0, 2]<br/>class = True>, fillcolor="#399de5"] ;
106 -> 107 ;
108 [label=<gini = 0.0<br/>samples = 3<br/>value = [3, 0]<br/>class = False>, fillcolor="#e58139"] ;
106 -> 108 ;
109 [label=<gini = 0.0<br/>samples = 1<br/>value = [0, 1]<br/>class = True>, fillcolor="#399de5"] ;
91 -> 109 ;
110 [label=<Total eve minutes &le; 265.4<br/>gini = 0.444<br/>samples = 3<br/>value = [2, 1]<br/>class = False>, fillcolor="#f2c09c"] ;
26 -> 110 ;
111 [label=<gini = 0.0<br/>samples = 2<br/>value = [2, 0]<br/>class = False>, fillcolor="#e58139"] ;
110 -> 111 ;
112 [label=<gini = 0.0<br/>samples = 1<br/>value = [0, 1]<br/>class = True>, fillcolor="#399de5"] ;
110 -> 112 ;
113 [label=<Account length &le; 152.5<br/>gini = 0.065<br/>samples = 899<br/>value = [869, 30]<br/>class = False>, fillcolor="#e68540"] ;
25 -> 113 ;
114 [label=<Total eve minutes &le; 168.7<br/>gini = 0.053<br/>samples = 807<br/>value = [785, 22]<br/>class = False>, fillcolor="#e6853f"] ;
113 -> 114 ;
115 [label=<gini = 0.0<br/>samples = 213<br/>value = [213, 0]<br/>class = False>, fillcolor="#e58139"] ;
114 -> 115 ;
116 [label=<Total eve minutes &le; 169.0<br/>gini = 0.071<br/>samples = 594<br/>value = [572, 22]<br/>class = False>, fillcolor="#e68641"] ;
114 -> 116 ;
117 [label=<gini = 0.0<br/>samples = 1<br/>value = [0, 1]<br/>class = True>, fillcolor="#399de5"] ;
116 -> 117 ;
118 [label=<State_NJ &le; 0.5<br/>gini = 0.068<br/>samples = 593<br/>value = [572, 21]<br/>class = False>, fillcolor="#e68640"] ;
116 -> 118 ;
119 [label=<Total eve minutes &le; 191.0<br/>gini = 0.063<br/>samples = 582<br/>value = [563, 19]<br/>class = False>, fillcolor="#e68540"] ;
118 -> 119 ;
120 [label=<State_NE &le; 0.5<br/>gini = 0.147<br/>samples = 100<br/>value = [92, 8]<br/>class = False>, fillcolor="#e78c4a"] ;
119 -> 120 ;
121 [label=<Total day minutes &le; 131.8<br/>gini = 0.131<br/>samples = 99<br/>value = [92, 7]<br/>class = False>, fillcolor="#e78b48"] ;
120 -> 121 ;
122 [label=<Number vmail messages &le; 33.0<br/>gini = 0.308<br/>samples = 21<br/>value = [17, 4]<br/>class = False>, fillcolor="#eb9f68"] ;
121 -> 122 ;
123 [label=<Account length &le; 50.5<br/>gini = 0.188<br/>samples = 19<br/>value = [17, 2]<br/>class = False>, fillcolor="#e89050"] ;
122 -> 123 ;
124 [label=<gini = 0.0<br/>samples = 1<br/>value = [0, 1]<br/>class = True>, fillcolor="#399de5"] ;
123 -> 124 ;
125 [label=<Total day minutes &le; 130.5<br/>gini = 0.105<br/>samples = 18<br/>value = [17, 1]<br/>class = False>, fillcolor="#e78845"] ;
123 -> 125 ;
126 [label=<gini = 0.0<br/>samples = 17<br/>value = [17, 0]<br/>class = False>, fillcolor="#e58139"] ;
125 -> 126 ;
127 [label=<gini = 0.0<br/>samples = 1<br/>value = [0, 1]<br/>class = True>, fillcolor="#399de5"] ;
125 -> 127 ;
128 [label=<gini = 0.0<br/>samples = 2<br/>value = [0, 2]<br/>class = True>, fillcolor="#399de5"] ;
122 -> 128 ;
129 [label=<State_GA &le; 0.5<br/>gini = 0.074<br/>samples = 78<br/>value = [75, 3]<br/>class = False>, fillcolor="#e68641"] ;
121 -> 129 ;
130 [label=<State_CA &le; 0.5<br/>gini = 0.051<br/>samples = 76<br/>value = [74, 2]<br/>class = False>, fillcolor="#e6843e"] ;
129 -> 130 ;
131 [label=<Total eve calls &le; 134.0<br/>gini = 0.027<br/>samples = 74<br/>value = [73, 1]<br/>class = False>, fillcolor="#e5833c"] ;
130 -> 131 ;
132 [label=<gini = 0.0<br/>samples = 72<br/>value = [72, 0]<br/>class = False>, fillcolor="#e58139"] ;
131 -> 132 ;
133 [label=<Total night calls &le; 110.0<br/>gini = 0.5<br/>samples = 2<br/>value = [1, 1]<br/>class = False>, fillcolor="#ffffff"] ;
131 -> 133 ;
134 [label=<gini = 0.0<br/>samples = 1<br/>value = [0, 1]<br/>class = True>, fillcolor="#399de5"] ;
133 -> 134 ;
135 [label=<gini = 0.0<br/>samples = 1<br/>value = [1, 0]<br/>class = False>, fillcolor="#e58139"] ;
133 -> 135 ;
136 [label=<Account length &le; 120.0<br/>gini = 0.5<br/>samples = 2<br/>value = [1, 1]<br/>class = False>, fillcolor="#ffffff"] ;
130 -> 136 ;
137 [label=<gini = 0.0<br/>samples = 1<br/>value = [0, 1]<br/>class = True>, fillcolor="#399de5"] ;
136 -> 137 ;
138 [label=<gini = 0.0<br/>samples = 1<br/>value = [1, 0]<br/>class = False>, fillcolor="#e58139"] ;
136 -> 138 ;
139 [label=<Total day calls &le; 80.0<br/>gini = 0.5<br/>samples = 2<br/>value = [1, 1]<br/>class = False>, fillcolor="#ffffff"] ;
129 -> 139 ;
140 [label=<gini = 0.0<br/>samples = 1<br/>value = [0, 1]<br/>class = True>, fillcolor="#399de5"] ;
139 -> 140 ;
141 [label=<gini = 0.0<br/>samples = 1<br/>value = [1, 0]<br/>class = False>, fillcolor="#e58139"] ;
139 -> 141 ;
142 [label=<gini = 0.0<br/>samples = 1<br/>value = [0, 1]<br/>class = True>, fillcolor="#399de5"] ;
120 -> 142 ;
143 [label=<Total day charge &le; 37.775<br/>gini = 0.045<br/>samples = 482<br/>value = [471, 11]<br/>class = False>, fillcolor="#e6843e"] ;
119 -> 143 ;
144 [label=<State_MT &le; 0.5<br/>gini = 0.041<br/>samples = 479<br/>value = [469, 10]<br/>class = False>, fillcolor="#e6843d"] ;
143 -> 144 ;
145 [label=<State_DC &le; 0.5<br/>gini = 0.034<br/>samples = 465<br/>value = [457, 8]<br/>class = False>, fillcolor="#e5833c"] ;
144 -> 145 ;
146 [label=<State_NH &le; 0.5<br/>gini = 0.03<br/>samples = 460<br/>value = [453, 7]<br/>class = False>, fillcolor="#e5833c"] ;
145 -> 146 ;
147 [label=<State_NM &le; 0.5<br/>gini = 0.026<br/>samples = 454<br/>value = [448, 6]<br/>class = False>, fillcolor="#e5833c"] ;
146 -> 147 ;
148 [label=<State_CO &le; 0.5<br/>gini = 0.022<br/>samples = 443<br/>value = [438, 5]<br/>class = False>, fillcolor="#e5823b"] ;
147 -> 148 ;
149 [label=<State_ID &le; 0.5<br/>gini = 0.018<br/>samples = 432<br/>value = [428, 4]<br/>class = False>, fillcolor="#e5823b"] ;
148 -> 149 ;
150 [label=<State_MS &le; 0.5<br/>gini = 0.014<br/>samples = 421<br/>value = [418, 3]<br/>class = False>, fillcolor="#e5823a"] ;
149 -> 150 ;
151 [label=<State_AZ &le; 0.5<br/>gini = 0.01<br/>samples = 410<br/>value = [408, 2]<br/>class = False>, fillcolor="#e5823a"] ;
150 -> 151 ;
152 [label=<State_OH &le; 0.5<br/>gini = 0.005<br/>samples = 398<br/>value = [397, 1]<br/>class = False>, fillcolor="#e58139"] ;
151 -> 152 ;
153 [label=<gini = 0.0<br/>samples = 383<br/>value = [383, 0]<br/>class = False>, fillcolor="#e58139"] ;
152 -> 153 ;
154 [label=<Total eve charge &le; 17.065<br/>gini = 0.124<br/>samples = 15<br/>value = [14, 1]<br/>class = False>, fillcolor="#e78a47"] ;
152 -> 154 ;
155 [label=<gini = 0.0<br/>samples = 1<br/>value = [0, 1]<br/>class = True>, fillcolor="#399de5"] ;
154 -> 155 ;
156 [label=<gini = 0.0<br/>samples = 14<br/>value = [14, 0]<br/>class = False>, fillcolor="#e58139"] ;
154 -> 156 ;
157 [label=<Total eve calls &le; 76.0<br/>gini = 0.153<br/>samples = 12<br/>value = [11, 1]<br/>class = False>, fillcolor="#e78c4b"] ;
151 -> 157 ;
158 [label=<gini = 0.0<br/>samples = 1<br/>value = [0, 1]<br/>class = True>, fillcolor="#399de5"] ;
157 -> 158 ;
159 [label=<gini = 0.0<br/>samples = 11<br/>value = [11, 0]<br/>class = False>, fillcolor="#e58139"] ;
157 -> 159 ;
160 [label=<Total eve calls &le; 117.5<br/>gini = 0.165<br/>samples = 11<br/>value = [10, 1]<br/>class = False>, fillcolor="#e88e4d"] ;
150 -> 160 ;
161 [label=<gini = 0.0<br/>samples = 10<br/>value = [10, 0]<br/>class = False>, fillcolor="#e58139"] ;
160 -> 161 ;
162 [label=<gini = 0.0<br/>samples = 1<br/>value = [0, 1]<br/>class = True>, fillcolor="#399de5"] ;
160 -> 162 ;
163 [label=<Total night charge &le; 6.265<br/>gini = 0.165<br/>samples = 11<br/>value = [10, 1]<br/>class = False>, fillcolor="#e88e4d"] ;
149 -> 163 ;
164 [label=<gini = 0.0<br/>samples = 1<br/>value = [0, 1]<br/>class = True>, fillcolor="#399de5"] ;
163 -> 164 ;
165 [label=<gini = 0.0<br/>samples = 10<br/>value = [10, 0]<br/>class = False>, fillcolor="#e58139"] ;
163 -> 165 ;
166 [label=<Total intl charge &le; 3.13<br/>gini = 0.165<br/>samples = 11<br/>value = [10, 1]<br/>class = False>, fillcolor="#e88e4d"] ;
148 -> 166 ;
167 [label=<gini = 0.0<br/>samples = 10<br/>value = [10, 0]<br/>class = False>, fillcolor="#e58139"] ;
166 -> 167 ;
168 [label=<gini = 0.0<br/>samples = 1<br/>value = [0, 1]<br/>class = True>, fillcolor="#399de5"] ;
166 -> 168 ;
169 [label=<Total intl minutes &le; 13.4<br/>gini = 0.165<br/>samples = 11<br/>value = [10, 1]<br/>class = False>, fillcolor="#e88e4d"] ;
147 -> 169 ;
170 [label=<gini = 0.0<br/>samples = 10<br/>value = [10, 0]<br/>class = False>, fillcolor="#e58139"] ;
169 -> 170 ;
171 [label=<gini = 0.0<br/>samples = 1<br/>value = [0, 1]<br/>class = True>, fillcolor="#399de5"] ;
169 -> 171 ;
172 [label=<Total eve calls &le; 111.5<br/>gini = 0.278<br/>samples = 6<br/>value = [5, 1]<br/>class = False>, fillcolor="#ea9a61"] ;
146 -> 172 ;
173 [label=<gini = 0.0<br/>samples = 5<br/>value = [5, 0]<br/>class = False>, fillcolor="#e58139"] ;
172 -> 173 ;
174 [label=<gini = 0.0<br/>samples = 1<br/>value = [0, 1]<br/>class = True>, fillcolor="#399de5"] ;
172 -> 174 ;
175 [label=<Total eve calls &le; 73.0<br/>gini = 0.32<br/>samples = 5<br/>value = [4, 1]<br/>class = False>, fillcolor="#eca06a"] ;
145 -> 175 ;
176 [label=<gini = 0.0<br/>samples = 1<br/>value = [0, 1]<br/>class = True>, fillcolor="#399de5"] ;
175 -> 176 ;
177 [label=<gini = 0.0<br/>samples = 4<br/>value = [4, 0]<br/>class = False>, fillcolor="#e58139"] ;
175 -> 177 ;
178 [label=<Total day charge &le; 18.2<br/>gini = 0.245<br/>samples = 14<br/>value = [12, 2]<br/>class = False>, fillcolor="#e9965a"] ;
144 -> 178 ;
179 [label=<gini = 0.0<br/>samples = 1<br/>value = [0, 1]<br/>class = True>, fillcolor="#399de5"] ;
178 -> 179 ;
180 [label=<Total eve minutes &le; 249.9<br/>gini = 0.142<br/>samples = 13<br/>value = [12, 1]<br/>class = False>, fillcolor="#e78c49"] ;
178 -> 180 ;
181 [label=<gini = 0.0<br/>samples = 11<br/>value = [11, 0]<br/>class = False>, fillcolor="#e58139"] ;
180 -> 181 ;
182 [label=<Total night charge &le; 11.835<br/>gini = 0.5<br/>samples = 2<br/>value = [1, 1]<br/>class = False>, fillcolor="#ffffff"] ;
180 -> 182 ;
183 [label=<gini = 0.0<br/>samples = 1<br/>value = [0, 1]<br/>class = True>, fillcolor="#399de5"] ;
182 -> 183 ;
184 [label=<gini = 0.0<br/>samples = 1<br/>value = [1, 0]<br/>class = False>, fillcolor="#e58139"] ;
182 -> 184 ;
185 [label=<State_NM &le; 0.5<br/>gini = 0.444<br/>samples = 3<br/>value = [2, 1]<br/>class = False>, fillcolor="#f2c09c"] ;
143 -> 185 ;
186 [label=<gini = 0.0<br/>samples = 2<br/>value = [2, 0]<br/>class = False>, fillcolor="#e58139"] ;
185 -> 186 ;
187 [label=<gini = 0.0<br/>samples = 1<br/>value = [0, 1]<br/>class = True>, fillcolor="#399de5"] ;
185 -> 187 ;
188 [label=<Total intl charge &le; 3.36<br/>gini = 0.298<br/>samples = 11<br/>value = [9, 2]<br/>class = False>, fillcolor="#eb9d65"] ;
118 -> 188 ;
189 [label=<gini = 0.0<br/>samples = 8<br/>value = [8, 0]<br/>class = False>, fillcolor="#e58139"] ;
188 -> 189 ;
190 [label=<Total day calls &le; 60.5<br/>gini = 0.444<br/>samples = 3<br/>value = [1, 2]<br/>class = True>, fillcolor="#9ccef2"] ;
188 -> 190 ;
191 [label=<gini = 0.0<br/>samples = 1<br/>value = [1, 0]<br/>class = False>, fillcolor="#e58139"] ;
190 -> 191 ;
192 [label=<gini = 0.0<br/>samples = 2<br/>value = [0, 2]<br/>class = True>, fillcolor="#399de5"] ;
190 -> 192 ;
193 [label=<Total night calls &le; 143.0<br/>gini = 0.159<br/>samples = 92<br/>value = [84, 8]<br/>class = False>, fillcolor="#e78d4c"] ;
113 -> 193 ;
194 [label=<Total night calls &le; 105.5<br/>gini = 0.142<br/>samples = 91<br/>value = [84, 7]<br/>class = False>, fillcolor="#e78c49"] ;
193 -> 194 ;
195 [label=<Total eve minutes &le; 200.4<br/>gini = 0.48<br/>samples = 5<br/>value = [3, 2]<br/>class = False>, fillcolor="#f6d5bd"] ;
194 -> 195 ;
196 [label=<gini = 0.0<br/>samples = 2<br/>value = [2, 0]<br/>class = False>, fillcolor="#e58139"] ;
195 -> 196 ;
197 [label=<Total night charge &le; 9.555<br/>gini = 0.444<br/>samples = 3<br/>value = [1, 2]<br/>class = True>, fillcolor="#9ccef2"] ;
195 -> 197 ;
198 [label=<gini = 0.0<br/>samples = 2<br/>value = [0, 2]<br/>class = True>, fillcolor="#399de5"] ;
197 -> 198 ;
199 [label=<gini = 0.0<br/>samples = 1<br/>value = [1, 0]<br/>class = False>, fillcolor="#e58139"] ;
197 -> 199 ;
200 [label=<State_WI &le; 0.5<br/>gini = 0.11<br/>samples = 86<br/>value = [81, 5]<br/>class = False>, fillcolor="#e78945"] ;
194 -> 200 ;
201 [label=<State_ID &le; 0.5<br/>gini = 0.091<br/>samples = 84<br/>value = [80, 4]<br/>class = False>, fillcolor="#e68743"] ;
200 -> 201 ;
202 [label=<Account length &le; 159.5<br/>gini = 0.071<br/>samples = 81<br/>value = [78, 3]<br/>class = False>, fillcolor="#e68641"] ;
201 -> 202 ;
203 [label=<State_WY &le; 0.5<br/>gini = 0.227<br/>samples = 23<br/>value = [20, 3]<br/>class = False>, fillcolor="#e99457"] ;
202 -> 203 ;
204 [label=<Total eve calls &le; 146.5<br/>gini = 0.165<br/>samples = 22<br/>value = [20, 2]<br/>class = False>, fillcolor="#e88e4d"] ;
203 -> 204 ;
205 [label=<State_LA &le; 0.5<br/>gini = 0.091<br/>samples = 21<br/>value = [20, 1]<br/>class = False>, fillcolor="#e68743"] ;
204 -> 205 ;
206 [label=<gini = 0.0<br/>samples = 19<br/>value = [19, 0]<br/>class = False>, fillcolor="#e58139"] ;
205 -> 206 ;
207 [label=<Total day minutes &le; 185.1<br/>gini = 0.5<br/>samples = 2<br/>value = [1, 1]<br/>class = False>, fillcolor="#ffffff"] ;
205 -> 207 ;
208 [label=<gini = 0.0<br/>samples = 1<br/>value = [1, 0]<br/>class = False>, fillcolor="#e58139"] ;
207 -> 208 ;
209 [label=<gini = 0.0<br/>samples = 1<br/>value = [0, 1]<br/>class = True>, fillcolor="#399de5"] ;
207 -> 209 ;
210 [label=<gini = 0.0<br/>samples = 1<br/>value = [0, 1]<br/>class = True>, fillcolor="#399de5"] ;
204 -> 210 ;
211 [label=<gini = 0.0<br/>samples = 1<br/>value = [0, 1]<br/>class = True>, fillcolor="#399de5"] ;
203 -> 211 ;
212 [label=<gini = 0.0<br/>samples = 58<br/>value = [58, 0]<br/>class = False>, fillcolor="#e58139"] ;
202 -> 212 ;
213 [label=<Total day minutes &le; 104.1<br/>gini = 0.444<br/>samples = 3<br/>value = [2, 1]<br/>class = False>, fillcolor="#f2c09c"] ;
201 -> 213 ;
214 [label=<gini = 0.0<br/>samples = 1<br/>value = [0, 1]<br/>class = True>, fillcolor="#399de5"] ;
213 -> 214 ;
215 [label=<gini = 0.0<br/>samples = 2<br/>value = [2, 0]<br/>class = False>, fillcolor="#e58139"] ;
213 -> 215 ;
216 [label=<Total night charge &le; 8.27<br/>gini = 0.5<br/>samples = 2<br/>value = [1, 1]<br/>class = False>, fillcolor="#ffffff"] ;
200 -> 216 ;
217 [label=<gini = 0.0<br/>samples = 1<br/>value = [0, 1]<br/>class = True>, fillcolor="#399de5"] ;
216 -> 217 ;
218 [label=<gini = 0.0<br/>samples = 1<br/>value = [1, 0]<br/>class = False>, fillcolor="#e58139"] ;
216 -> 218 ;
219 [label=<gini = 0.0<br/>samples = 1<br/>value = [0, 1]<br/>class = True>, fillcolor="#399de5"] ;
193 -> 219 ;
220 [label=<Account length &le; 140.5<br/>gini = 0.231<br/>samples = 15<br/>value = [13, 2]<br/>class = False>, fillcolor="#e99457"] ;
24 -> 220 ;
221 [label=<State_UT &le; 0.5<br/>gini = 0.133<br/>samples = 14<br/>value = [13, 1]<br/>class = False>, fillcolor="#e78b48"] ;
220 -> 221 ;
222 [label=<gini = 0.0<br/>samples = 13<br/>value = [13, 0]<br/>class = False>, fillcolor="#e58139"] ;
221 -> 222 ;
223 [label=<gini = 0.0<br/>samples = 1<br/>value = [0, 1]<br/>class = True>, fillcolor="#399de5"] ;
221 -> 223 ;
224 [label=<gini = 0.0<br/>samples = 1<br/>value = [0, 1]<br/>class = True>, fillcolor="#399de5"] ;
220 -> 224 ;
225 [label=<Total day minutes &le; 216.0<br/>gini = 0.159<br/>samples = 46<br/>value = [42, 4]<br/>class = False>, fillcolor="#e78d4c"] ;
23 -> 225 ;
226 [label=<Total intl calls &le; 1.5<br/>gini = 0.124<br/>samples = 45<br/>value = [42, 3]<br/>class = False>, fillcolor="#e78a47"] ;
225 -> 226 ;
227 [label=<Customer service calls &le; 1.5<br/>gini = 0.5<br/>samples = 4<br/>value = [2, 2]<br/>class = False>, fillcolor="#ffffff"] ;
226 -> 227 ;
228 [label=<gini = 0.0<br/>samples = 2<br/>value = [2, 0]<br/>class = False>, fillcolor="#e58139"] ;
227 -> 228 ;
229 [label=<gini = 0.0<br/>samples = 2<br/>value = [0, 2]<br/>class = True>, fillcolor="#399de5"] ;
227 -> 229 ;
230 [label=<Total night charge &le; 11.265<br/>gini = 0.048<br/>samples = 41<br/>value = [40, 1]<br/>class = False>, fillcolor="#e6843e"] ;
226 -> 230 ;
231 [label=<gini = 0.0<br/>samples = 38<br/>value = [38, 0]<br/>class = False>, fillcolor="#e58139"] ;
230 -> 231 ;
232 [label=<Total night minutes &le; 256.0<br/>gini = 0.444<br/>samples = 3<br/>value = [2, 1]<br/>class = False>, fillcolor="#f2c09c"] ;
230 -> 232 ;
233 [label=<gini = 0.0<br/>samples = 1<br/>value = [0, 1]<br/>class = True>, fillcolor="#399de5"] ;
232 -> 233 ;
234 [label=<gini = 0.0<br/>samples = 2<br/>value = [2, 0]<br/>class = False>, fillcolor="#e58139"] ;
232 -> 234 ;
235 [label=<gini = 0.0<br/>samples = 1<br/>value = [0, 1]<br/>class = True>, fillcolor="#399de5"] ;
225 -> 235 ;
236 [label=<State_MI &le; 0.5<br/>gini = 0.375<br/>samples = 4<br/>value = [3, 1]<br/>class = False>, fillcolor="#eeab7b"] ;
22 -> 236 ;
237 [label=<gini = 0.0<br/>samples = 3<br/>value = [3, 0]<br/>class = False>, fillcolor="#e58139"] ;
236 -> 237 ;
238 [label=<gini = 0.0<br/>samples = 1<br/>value = [0, 1]<br/>class = True>, fillcolor="#399de5"] ;
236 -> 238 ;
239 [label=<Total night charge &le; 10.39<br/>gini = 0.375<br/>samples = 12<br/>value = [9, 3]<br/>class = False>, fillcolor="#eeab7b"] ;
21 -> 239 ;
240 [label=<gini = 0.0<br/>samples = 8<br/>value = [8, 0]<br/>class = False>, fillcolor="#e58139"] ;
239 -> 240 ;
241 [label=<Total day minutes &le; 131.75<br/>gini = 0.375<br/>samples = 4<br/>value = [1, 3]<br/>class = True>, fillcolor="#7bbeee"] ;
239 -> 241 ;
242 [label=<gini = 0.0<br/>samples = 1<br/>value = [1, 0]<br/>class = False>, fillcolor="#e58139"] ;
241 -> 242 ;
243 [label=<gini = 0.0<br/>samples = 3<br/>value = [0, 3]<br/>class = True>, fillcolor="#399de5"] ;
241 -> 243 ;
244 [label=<Total eve minutes &le; 259.8<br/>gini = 0.292<br/>samples = 383<br/>value = [315, 68]<br/>class = False>, fillcolor="#eb9c64"] ;
20 -> 244 ;
245 [label=<Total eve minutes &le; 242.35<br/>gini = 0.184<br/>samples = 332<br/>value = [298, 34]<br/>class = False>, fillcolor="#e88f50"] ;
244 -> 245 ;
246 [label=<Total day minutes &le; 223.4<br/>gini = 0.138<br/>samples = 296<br/>value = [274, 22]<br/>class = False>, fillcolor="#e78b49"] ;
245 -> 246 ;
247 [label=<gini = 0.0<br/>samples = 1<br/>value = [0, 1]<br/>class = True>, fillcolor="#399de5"] ;
246 -> 247 ;
248 [label=<Total intl charge &le; 4.655<br/>gini = 0.132<br/>samples = 295<br/>value = [274, 21]<br/>class = False>, fillcolor="#e78b48"] ;
246 -> 248 ;
249 [label=<Account length &le; 204.0<br/>gini = 0.127<br/>samples = 294<br/>value = [274, 20]<br/>class = False>, fillcolor="#e78a47"] ;
248 -> 249 ;
250 [label=<Total night minutes &le; 233.35<br/>gini = 0.121<br/>samples = 293<br/>value = [274, 19]<br/>class = False>, fillcolor="#e78a47"] ;
249 -> 250 ;
251 [label=<Total day calls &le; 147.5<br/>gini = 0.071<br/>samples = 216<br/>value = [208, 8]<br/>class = False>, fillcolor="#e68641"] ;
250 -> 251 ;
252 [label=<Account length &le; 24.5<br/>gini = 0.063<br/>samples = 215<br/>value = [208, 7]<br/>class = False>, fillcolor="#e68540"] ;
251 -> 252 ;
253 [label=<Area code &le; 462.5<br/>gini = 0.408<br/>samples = 7<br/>value = [5, 2]<br/>class = False>, fillcolor="#efb388"] ;
252 -> 253 ;
254 [label=<gini = 0.0<br/>samples = 5<br/>value = [5, 0]<br/>class = False>, fillcolor="#e58139"] ;
253 -> 254 ;
255 [label=<gini = 0.0<br/>samples = 2<br/>value = [0, 2]<br/>class = True>, fillcolor="#399de5"] ;
253 -> 255 ;
256 [label=<State_CT &le; 0.5<br/>gini = 0.047<br/>samples = 208<br/>value = [203, 5]<br/>class = False>, fillcolor="#e6843e"] ;
252 -> 256 ;
257 [label=<State_MA &le; 0.5<br/>gini = 0.038<br/>samples = 205<br/>value = [201, 4]<br/>class = False>, fillcolor="#e6843d"] ;
256 -> 257 ;
258 [label=<State_NJ &le; 0.5<br/>gini = 0.03<br/>samples = 200<br/>value = [197, 3]<br/>class = False>, fillcolor="#e5833c"] ;
257 -> 258 ;
259 [label=<State_NY &le; 0.5<br/>gini = 0.02<br/>samples = 194<br/>value = [192, 2]<br/>class = False>, fillcolor="#e5823b"] ;
258 -> 259 ;
260 [label=<State_MI &le; 0.5<br/>gini = 0.011<br/>samples = 187<br/>value = [186, 1]<br/>class = False>, fillcolor="#e5823a"] ;
259 -> 260 ;
261 [label=<gini = 0.0<br/>samples = 180<br/>value = [180, 0]<br/>class = False>, fillcolor="#e58139"] ;
260 -> 261 ;
262 [label=<Total eve calls &le; 83.0<br/>gini = 0.245<br/>samples = 7<br/>value = [6, 1]<br/>class = False>, fillcolor="#e9965a"] ;
260 -> 262 ;
263 [label=<gini = 0.0<br/>samples = 1<br/>value = [0, 1]<br/>class = True>, fillcolor="#399de5"] ;
262 -> 263 ;
264 [label=<gini = 0.0<br/>samples = 6<br/>value = [6, 0]<br/>class = False>, fillcolor="#e58139"] ;
262 -> 264 ;
265 [label=<Total intl calls &le; 3.0<br/>gini = 0.245<br/>samples = 7<br/>value = [6, 1]<br/>class = False>, fillcolor="#e9965a"] ;
259 -> 265 ;
266 [label=<Total eve calls &le; 103.0<br/>gini = 0.5<br/>samples = 2<br/>value = [1, 1]<br/>class = False>, fillcolor="#ffffff"] ;
265 -> 266 ;
267 [label=<gini = 0.0<br/>samples = 1<br/>value = [1, 0]<br/>class = False>, fillcolor="#e58139"] ;
266 -> 267 ;
268 [label=<gini = 0.0<br/>samples = 1<br/>value = [0, 1]<br/>class = True>, fillcolor="#399de5"] ;
266 -> 268 ;
269 [label=<gini = 0.0<br/>samples = 5<br/>value = [5, 0]<br/>class = False>, fillcolor="#e58139"] ;
265 -> 269 ;
270 [label=<Total night calls &le; 83.5<br/>gini = 0.278<br/>samples = 6<br/>value = [5, 1]<br/>class = False>, fillcolor="#ea9a61"] ;
258 -> 270 ;
271 [label=<gini = 0.0<br/>samples = 1<br/>value = [0, 1]<br/>class = True>, fillcolor="#399de5"] ;
270 -> 271 ;
272 [label=<gini = 0.0<br/>samples = 5<br/>value = [5, 0]<br/>class = False>, fillcolor="#e58139"] ;
270 -> 272 ;
273 [label=<Total eve calls &le; 82.5<br/>gini = 0.32<br/>samples = 5<br/>value = [4, 1]<br/>class = False>, fillcolor="#eca06a"] ;
257 -> 273 ;
274 [label=<gini = 0.0<br/>samples = 1<br/>value = [0, 1]<br/>class = True>, fillcolor="#399de5"] ;
273 -> 274 ;
275 [label=<gini = 0.0<br/>samples = 4<br/>value = [4, 0]<br/>class = False>, fillcolor="#e58139"] ;
273 -> 275 ;
276 [label=<Total night calls &le; 86.5<br/>gini = 0.444<br/>samples = 3<br/>value = [2, 1]<br/>class = False>, fillcolor="#f2c09c"] ;
256 -> 276 ;
277 [label=<gini = 0.0<br/>samples = 1<br/>value = [0, 1]<br/>class = True>, fillcolor="#399de5"] ;
276 -> 277 ;
278 [label=<gini = 0.0<br/>samples = 2<br/>value = [2, 0]<br/>class = False>, fillcolor="#e58139"] ;
276 -> 278 ;
279 [label=<gini = 0.0<br/>samples = 1<br/>value = [0, 1]<br/>class = True>, fillcolor="#399de5"] ;
251 -> 279 ;
280 [label=<Total day charge &le; 43.495<br/>gini = 0.245<br/>samples = 77<br/>value = [66, 11]<br/>class = False>, fillcolor="#e9965a"] ;
250 -> 280 ;
281 [label=<Total eve minutes &le; 197.25<br/>gini = 0.155<br/>samples = 71<br/>value = [65, 6]<br/>class = False>, fillcolor="#e78d4b"] ;
280 -> 281 ;
282 [label=<State_FL &le; 0.5<br/>gini = 0.039<br/>samples = 50<br/>value = [49, 1]<br/>class = False>, fillcolor="#e6843d"] ;
281 -> 282 ;
283 [label=<gini = 0.0<br/>samples = 49<br/>value = [49, 0]<br/>class = False>, fillcolor="#e58139"] ;
282 -> 283 ;
284 [label=<gini = 0.0<br/>samples = 1<br/>value = [0, 1]<br/>class = True>, fillcolor="#399de5"] ;
282 -> 284 ;
285 [label=<Total day charge &le; 40.16<br/>gini = 0.363<br/>samples = 21<br/>value = [16, 5]<br/>class = False>, fillcolor="#eda877"] ;
281 -> 285 ;
286 [label=<gini = 0.0<br/>samples = 12<br/>value = [12, 0]<br/>class = False>, fillcolor="#e58139"] ;
285 -> 286 ;
287 [label=<Account length &le; 92.0<br/>gini = 0.494<br/>samples = 9<br/>value = [4, 5]<br/>class = True>, fillcolor="#d7ebfa"] ;
285 -> 287 ;
288 [label=<gini = 0.0<br/>samples = 4<br/>value = [0, 4]<br/>class = True>, fillcolor="#399de5"] ;
287 -> 288 ;
289 [label=<Total intl charge &le; 3.305<br/>gini = 0.32<br/>samples = 5<br/>value = [4, 1]<br/>class = False>, fillcolor="#eca06a"] ;
287 -> 289 ;
290 [label=<gini = 0.0<br/>samples = 4<br/>value = [4, 0]<br/>class = False>, fillcolor="#e58139"] ;
289 -> 290 ;
291 [label=<gini = 0.0<br/>samples = 1<br/>value = [0, 1]<br/>class = True>, fillcolor="#399de5"] ;
289 -> 291 ;
292 [label=<Total eve charge &le; 14.23<br/>gini = 0.278<br/>samples = 6<br/>value = [1, 5]<br/>class = True>, fillcolor="#61b1ea"] ;
280 -> 292 ;
293 [label=<gini = 0.0<br/>samples = 1<br/>value = [1, 0]<br/>class = False>, fillcolor="#e58139"] ;
292 -> 293 ;
294 [label=<gini = 0.0<br/>samples = 5<br/>value = [0, 5]<br/>class = True>, fillcolor="#399de5"] ;
292 -> 294 ;
295 [label=<gini = 0.0<br/>samples = 1<br/>value = [0, 1]<br/>class = True>, fillcolor="#399de5"] ;
249 -> 295 ;
296 [label=<gini = 0.0<br/>samples = 1<br/>value = [0, 1]<br/>class = True>, fillcolor="#399de5"] ;
248 -> 296 ;
297 [label=<Total night minutes &le; 201.05<br/>gini = 0.444<br/>samples = 36<br/>value = [24, 12]<br/>class = False>, fillcolor="#f2c09c"] ;
245 -> 297 ;
298 [label=<Total day charge &le; 44.37<br/>gini = 0.111<br/>samples = 17<br/>value = [16, 1]<br/>class = False>, fillcolor="#e78945"] ;
297 -> 298 ;
299 [label=<gini = 0.0<br/>samples = 16<br/>value = [16, 0]<br/>class = False>, fillcolor="#e58139"] ;
298 -> 299 ;
300 [label=<gini = 0.0<br/>samples = 1<br/>value = [0, 1]<br/>class = True>, fillcolor="#399de5"] ;
298 -> 300 ;
301 [label=<Number vmail messages &le; 11.5<br/>gini = 0.488<br/>samples = 19<br/>value = [8, 11]<br/>class = True>, fillcolor="#c9e4f8"] ;
297 -> 301 ;
302 [label=<Account length &le; 52.0<br/>gini = 0.26<br/>samples = 13<br/>value = [2, 11]<br/>class = True>, fillcolor="#5dafea"] ;
301 -> 302 ;
303 [label=<Total night calls &le; 91.5<br/>gini = 0.444<br/>samples = 3<br/>value = [2, 1]<br/>class = False>, fillcolor="#f2c09c"] ;
302 -> 303 ;
304 [label=<gini = 0.0<br/>samples = 1<br/>value = [0, 1]<br/>class = True>, fillcolor="#399de5"] ;
303 -> 304 ;
305 [label=<gini = 0.0<br/>samples = 2<br/>value = [2, 0]<br/>class = False>, fillcolor="#e58139"] ;
303 -> 305 ;
306 [label=<gini = 0.0<br/>samples = 10<br/>value = [0, 10]<br/>class = True>, fillcolor="#399de5"] ;
302 -> 306 ;
307 [label=<gini = 0.0<br/>samples = 6<br/>value = [6, 0]<br/>class = False>, fillcolor="#e58139"] ;
301 -> 307 ;
308 [label=<Voice mail plan_Yes &le; 0.5<br/>gini = 0.444<br/>samples = 51<br/>value = [17, 34]<br/>class = True>, fillcolor="#9ccef2"] ;
244 -> 308 ;
309 [label=<Total night charge &le; 6.625<br/>gini = 0.255<br/>samples = 40<br/>value = [6, 34]<br/>class = True>, fillcolor="#5caeea"] ;
308 -> 309 ;
310 [label=<Total day charge &le; 41.905<br/>gini = 0.375<br/>samples = 4<br/>value = [3, 1]<br/>class = False>, fillcolor="#eeab7b"] ;
309 -> 310 ;
311 [label=<gini = 0.0<br/>samples = 3<br/>value = [3, 0]<br/>class = False>, fillcolor="#e58139"] ;
310 -> 311 ;
312 [label=<gini = 0.0<br/>samples = 1<br/>value = [0, 1]<br/>class = True>, fillcolor="#399de5"] ;
310 -> 312 ;
313 [label=<Total intl minutes &le; 7.9<br/>gini = 0.153<br/>samples = 36<br/>value = [3, 33]<br/>class = True>, fillcolor="#4ba6e7"] ;
309 -> 313 ;
314 [label=<Total intl minutes &le; 6.45<br/>gini = 0.48<br/>samples = 5<br/>value = [3, 2]<br/>class = False>, fillcolor="#f6d5bd"] ;
313 -> 314 ;
315 [label=<Total intl calls &le; 1.0<br/>gini = 0.444<br/>samples = 3<br/>value = [1, 2]<br/>class = True>, fillcolor="#9ccef2"] ;
314 -> 315 ;
316 [label=<gini = 0.0<br/>samples = 1<br/>value = [1, 0]<br/>class = False>, fillcolor="#e58139"] ;
315 -> 316 ;
317 [label=<gini = 0.0<br/>samples = 2<br/>value = [0, 2]<br/>class = True>, fillcolor="#399de5"] ;
315 -> 317 ;
318 [label=<gini = 0.0<br/>samples = 2<br/>value = [2, 0]<br/>class = False>, fillcolor="#e58139"] ;
314 -> 318 ;
319 [label=<gini = 0.0<br/>samples = 31<br/>value = [0, 31]<br/>class = True>, fillcolor="#399de5"] ;
313 -> 319 ;
320 [label=<gini = 0.0<br/>samples = 11<br/>value = [11, 0]<br/>class = False>, fillcolor="#e58139"] ;
308 -> 320 ;
321 [label=<Total day minutes &le; 160.2<br/>gini = 0.5<br/>samples = 251<br/>value = [124, 127]<br/>class = True>, fillcolor="#fafdfe"] ;
1 -> 321 ;
322 [label=<Total eve charge &le; 19.83<br/>gini = 0.222<br/>samples = 102<br/>value = [13, 89]<br/>class = True>, fillcolor="#56abe9"] ;
321 -> 322 ;
323 [label=<State_IL &le; 0.5<br/>gini = 0.073<br/>samples = 79<br/>value = [3, 76]<br/>class = True>, fillcolor="#41a1e6"] ;
322 -> 323 ;
324 [label=<State_CO &le; 0.5<br/>gini = 0.026<br/>samples = 77<br/>value = [1, 76]<br/>class = True>, fillcolor="#3c9ee5"] ;
323 -> 324 ;
325 [label=<gini = 0.0<br/>samples = 75<br/>value = [0, 75]<br/>class = True>, fillcolor="#399de5"] ;
324 -> 325 ;
326 [label=<Total intl calls &le; 6.5<br/>gini = 0.5<br/>samples = 2<br/>value = [1, 1]<br/>class = False>, fillcolor="#ffffff"] ;
324 -> 326 ;
327 [label=<gini = 0.0<br/>samples = 1<br/>value = [0, 1]<br/>class = True>, fillcolor="#399de5"] ;
326 -> 327 ;
328 [label=<gini = 0.0<br/>samples = 1<br/>value = [1, 0]<br/>class = False>, fillcolor="#e58139"] ;
326 -> 328 ;
329 [label=<gini = 0.0<br/>samples = 2<br/>value = [2, 0]<br/>class = False>, fillcolor="#e58139"] ;
323 -> 329 ;
330 [label=<Total day minutes &le; 120.5<br/>gini = 0.491<br/>samples = 23<br/>value = [10, 13]<br/>class = True>, fillcolor="#d1e8f9"] ;
322 -> 330 ;
331 [label=<gini = 0.0<br/>samples = 10<br/>value = [0, 10]<br/>class = True>, fillcolor="#399de5"] ;
330 -> 331 ;
332 [label=<Total night minutes &le; 207.35<br/>gini = 0.355<br/>samples = 13<br/>value = [10, 3]<br/>class = False>, fillcolor="#eda774"] ;
330 -> 332 ;
333 [label=<gini = 0.0<br/>samples = 7<br/>value = [7, 0]<br/>class = False>, fillcolor="#e58139"] ;
332 -> 333 ;
334 [label=<Total day charge &le; 23.365<br/>gini = 0.5<br/>samples = 6<br/>value = [3, 3]<br/>class = False>, fillcolor="#ffffff"] ;
332 -> 334 ;
335 [label=<gini = 0.0<br/>samples = 2<br/>value = [0, 2]<br/>class = True>, fillcolor="#399de5"] ;
334 -> 335 ;
336 [label=<Total eve calls &le; 95.5<br/>gini = 0.375<br/>samples = 4<br/>value = [3, 1]<br/>class = False>, fillcolor="#eeab7b"] ;
334 -> 336 ;
337 [label=<gini = 0.0<br/>samples = 1<br/>value = [0, 1]<br/>class = True>, fillcolor="#399de5"] ;
336 -> 337 ;
338 [label=<gini = 0.0<br/>samples = 3<br/>value = [3, 0]<br/>class = False>, fillcolor="#e58139"] ;
336 -> 338 ;
339 [label=<Total eve charge &le; 12.05<br/>gini = 0.38<br/>samples = 149<br/>value = [111, 38]<br/>class = False>, fillcolor="#eeac7d"] ;
321 -> 339 ;
340 [label=<Total eve calls &le; 125.0<br/>gini = 0.388<br/>samples = 19<br/>value = [5, 14]<br/>class = True>, fillcolor="#80c0ee"] ;
339 -> 340 ;
341 [label=<Total intl calls &le; 7.0<br/>gini = 0.219<br/>samples = 16<br/>value = [2, 14]<br/>class = True>, fillcolor="#55abe9"] ;
340 -> 341 ;
342 [label=<State_WA &le; 0.5<br/>gini = 0.124<br/>samples = 15<br/>value = [1, 14]<br/>class = True>, fillcolor="#47a4e7"] ;
341 -> 342 ;
343 [label=<gini = 0.0<br/>samples = 14<br/>value = [0, 14]<br/>class = True>, fillcolor="#399de5"] ;
342 -> 343 ;
344 [label=<gini = 0.0<br/>samples = 1<br/>value = [1, 0]<br/>class = False>, fillcolor="#e58139"] ;
342 -> 344 ;
345 [label=<gini = 0.0<br/>samples = 1<br/>value = [1, 0]<br/>class = False>, fillcolor="#e58139"] ;
341 -> 345 ;
346 [label=<gini = 0.0<br/>samples = 3<br/>value = [3, 0]<br/>class = False>, fillcolor="#e58139"] ;
340 -> 346 ;
347 [label=<Total day charge &le; 29.88<br/>gini = 0.301<br/>samples = 130<br/>value = [106, 24]<br/>class = False>, fillcolor="#eb9e66"] ;
339 -> 347 ;
348 [label=<Total eve minutes &le; 212.15<br/>gini = 0.484<br/>samples = 34<br/>value = [20, 14]<br/>class = False>, fillcolor="#f7d9c4"] ;
347 -> 348 ;
349 [label=<State_AL &le; 0.5<br/>gini = 0.219<br/>samples = 16<br/>value = [2, 14]<br/>class = True>, fillcolor="#55abe9"] ;
348 -> 349 ;
350 [label=<Total intl minutes &le; 16.8<br/>gini = 0.124<br/>samples = 15<br/>value = [1, 14]<br/>class = True>, fillcolor="#47a4e7"] ;
349 -> 350 ;
351 [label=<gini = 0.0<br/>samples = 14<br/>value = [0, 14]<br/>class = True>, fillcolor="#399de5"] ;
350 -> 351 ;
352 [label=<gini = 0.0<br/>samples = 1<br/>value = [1, 0]<br/>class = False>, fillcolor="#e58139"] ;
350 -> 352 ;
353 [label=<gini = 0.0<br/>samples = 1<br/>value = [1, 0]<br/>class = False>, fillcolor="#e58139"] ;
349 -> 353 ;
354 [label=<gini = 0.0<br/>samples = 18<br/>value = [18, 0]<br/>class = False>, fillcolor="#e58139"] ;
348 -> 354 ;
355 [label=<International plan_Yes &le; 0.5<br/>gini = 0.187<br/>samples = 96<br/>value = [86, 10]<br/>class = False>, fillcolor="#e89050"] ;
347 -> 355 ;
356 [label=<Total intl charge &le; 1.28<br/>gini = 0.113<br/>samples = 83<br/>value = [78, 5]<br/>class = False>, fillcolor="#e78946"] ;
355 -> 356 ;
357 [label=<gini = 0.0<br/>samples = 1<br/>value = [0, 1]<br/>class = True>, fillcolor="#399de5"] ;
356 -> 357 ;
358 [label=<State_MS &le; 0.5<br/>gini = 0.093<br/>samples = 82<br/>value = [78, 4]<br/>class = False>, fillcolor="#e68743"] ;
356 -> 358 ;
359 [label=<State_OR &le; 0.5<br/>gini = 0.071<br/>samples = 81<br/>value = [78, 3]<br/>class = False>, fillcolor="#e68641"] ;
358 -> 359 ;
360 [label=<State_WY &le; 0.5<br/>gini = 0.049<br/>samples = 79<br/>value = [77, 2]<br/>class = False>, fillcolor="#e6843e"] ;
359 -> 360 ;
361 [label=<State_TX &le; 0.5<br/>gini = 0.026<br/>samples = 76<br/>value = [75, 1]<br/>class = False>, fillcolor="#e5833c"] ;
360 -> 361 ;
362 [label=<gini = 0.0<br/>samples = 71<br/>value = [71, 0]<br/>class = False>, fillcolor="#e58139"] ;
361 -> 362 ;
363 [label=<Total intl charge &le; 3.175<br/>gini = 0.32<br/>samples = 5<br/>value = [4, 1]<br/>class = False>, fillcolor="#eca06a"] ;
361 -> 363 ;
364 [label=<gini = 0.0<br/>samples = 4<br/>value = [4, 0]<br/>class = False>, fillcolor="#e58139"] ;
363 -> 364 ;
365 [label=<gini = 0.0<br/>samples = 1<br/>value = [0, 1]<br/>class = True>, fillcolor="#399de5"] ;
363 -> 365 ;
366 [label=<Total night charge &le; 10.205<br/>gini = 0.444<br/>samples = 3<br/>value = [2, 1]<br/>class = False>, fillcolor="#f2c09c"] ;
360 -> 366 ;
367 [label=<gini = 0.0<br/>samples = 2<br/>value = [2, 0]<br/>class = False>, fillcolor="#e58139"] ;
366 -> 367 ;
368 [label=<gini = 0.0<br/>samples = 1<br/>value = [0, 1]<br/>class = True>, fillcolor="#399de5"] ;
366 -> 368 ;
369 [label=<Total night calls &le; 99.5<br/>gini = 0.5<br/>samples = 2<br/>value = [1, 1]<br/>class = False>, fillcolor="#ffffff"] ;
359 -> 369 ;
370 [label=<gini = 0.0<br/>samples = 1<br/>value = [1, 0]<br/>class = False>, fillcolor="#e58139"] ;
369 -> 370 ;
371 [label=<gini = 0.0<br/>samples = 1<br/>value = [0, 1]<br/>class = True>, fillcolor="#399de5"] ;
369 -> 371 ;
372 [label=<gini = 0.0<br/>samples = 1<br/>value = [0, 1]<br/>class = True>, fillcolor="#399de5"] ;
358 -> 372 ;
373 [label=<Total eve minutes &le; 243.05<br/>gini = 0.473<br/>samples = 13<br/>value = [8, 5]<br/>class = False>, fillcolor="#f5d0b5"] ;
355 -> 373 ;
374 [label=<Total day minutes &le; 187.5<br/>gini = 0.198<br/>samples = 9<br/>value = [8, 1]<br/>class = False>, fillcolor="#e89152"] ;
373 -> 374 ;
375 [label=<gini = 0.0<br/>samples = 1<br/>value = [0, 1]<br/>class = True>, fillcolor="#399de5"] ;
374 -> 375 ;
376 [label=<gini = 0.0<br/>samples = 8<br/>value = [8, 0]<br/>class = False>, fillcolor="#e58139"] ;
374 -> 376 ;
377 [label=<gini = 0.0<br/>samples = 4<br/>value = [0, 4]<br/>class = True>, fillcolor="#399de5"] ;
373 -> 377 ;
378 [label=<Voice mail plan_Yes &le; 0.5<br/>gini = 0.479<br/>samples = 211<br/>value = [84, 127]<br/>class = True>, fillcolor="#bcdef6"] ;
0 -> 378 [labeldistance=2.5, labelangle=-45, headlabel="False"] ;
379 [label=<Total eve charge &le; 15.96<br/>gini = 0.359<br/>samples = 158<br/>value = [37, 121]<br/>class = True>, fillcolor="#76bbed"] ;
378 -> 379 ;
380 [label=<Total day minutes &le; 277.7<br/>gini = 0.492<br/>samples = 57<br/>value = [32, 25]<br/>class = False>, fillcolor="#f9e3d4"] ;
379 -> 380 ;
381 [label=<Total night minutes &le; 257.6<br/>gini = 0.269<br/>samples = 25<br/>value = [21, 4]<br/>class = False>, fillcolor="#ea995f"] ;
380 -> 381 ;
382 [label=<State_NE &le; 0.5<br/>gini = 0.091<br/>samples = 21<br/>value = [20, 1]<br/>class = False>, fillcolor="#e68743"] ;
381 -> 382 ;
383 [label=<gini = 0.0<br/>samples = 20<br/>value = [20, 0]<br/>class = False>, fillcolor="#e58139"] ;
382 -> 383 ;
384 [label=<gini = 0.0<br/>samples = 1<br/>value = [0, 1]<br/>class = True>, fillcolor="#399de5"] ;
382 -> 384 ;
385 [label=<Total eve charge &le; 11.485<br/>gini = 0.375<br/>samples = 4<br/>value = [1, 3]<br/>class = True>, fillcolor="#7bbeee"] ;
381 -> 385 ;
386 [label=<gini = 0.0<br/>samples = 1<br/>value = [1, 0]<br/>class = False>, fillcolor="#e58139"] ;
385 -> 386 ;
387 [label=<gini = 0.0<br/>samples = 3<br/>value = [0, 3]<br/>class = True>, fillcolor="#399de5"] ;
385 -> 387 ;
388 [label=<Total eve minutes &le; 144.35<br/>gini = 0.451<br/>samples = 32<br/>value = [11, 21]<br/>class = True>, fillcolor="#a1d0f3"] ;
380 -> 388 ;
389 [label=<Total night calls &le; 81.0<br/>gini = 0.219<br/>samples = 8<br/>value = [7, 1]<br/>class = False>, fillcolor="#e99355"] ;
388 -> 389 ;
390 [label=<gini = 0.0<br/>samples = 1<br/>value = [0, 1]<br/>class = True>, fillcolor="#399de5"] ;
389 -> 390 ;
391 [label=<gini = 0.0<br/>samples = 7<br/>value = [7, 0]<br/>class = False>, fillcolor="#e58139"] ;
389 -> 391 ;
392 [label=<Total night charge &le; 6.835<br/>gini = 0.278<br/>samples = 24<br/>value = [4, 20]<br/>class = True>, fillcolor="#61b1ea"] ;
388 -> 392 ;
393 [label=<Account length &le; 123.0<br/>gini = 0.444<br/>samples = 6<br/>value = [4, 2]<br/>class = False>, fillcolor="#f2c09c"] ;
392 -> 393 ;
394 [label=<gini = 0.0<br/>samples = 4<br/>value = [4, 0]<br/>class = False>, fillcolor="#e58139"] ;
393 -> 394 ;
395 [label=<gini = 0.0<br/>samples = 2<br/>value = [0, 2]<br/>class = True>, fillcolor="#399de5"] ;
393 -> 395 ;
396 [label=<gini = 0.0<br/>samples = 18<br/>value = [0, 18]<br/>class = True>, fillcolor="#399de5"] ;
392 -> 396 ;
397 [label=<Total night minutes &le; 127.0<br/>gini = 0.094<br/>samples = 101<br/>value = [5, 96]<br/>class = True>, fillcolor="#43a2e6"] ;
379 -> 397 ;
398 [label=<Total day minutes &le; 277.15<br/>gini = 0.49<br/>samples = 7<br/>value = [4, 3]<br/>class = False>, fillcolor="#f8e0ce"] ;
397 -> 398 ;
399 [label=<gini = 0.0<br/>samples = 4<br/>value = [4, 0]<br/>class = False>, fillcolor="#e58139"] ;
398 -> 399 ;
400 [label=<gini = 0.0<br/>samples = 3<br/>value = [0, 3]<br/>class = True>, fillcolor="#399de5"] ;
398 -> 400 ;
401 [label=<State_ID &le; 0.5<br/>gini = 0.021<br/>samples = 94<br/>value = [1, 93]<br/>class = True>, fillcolor="#3b9ee5"] ;
397 -> 401 ;
402 [label=<gini = 0.0<br/>samples = 92<br/>value = [0, 92]<br/>class = True>, fillcolor="#399de5"] ;
401 -> 402 ;
403 [label=<Total intl minutes &le; 8.5<br/>gini = 0.5<br/>samples = 2<br/>value = [1, 1]<br/>class = False>, fillcolor="#ffffff"] ;
401 -> 403 ;
404 [label=<gini = 0.0<br/>samples = 1<br/>value = [1, 0]<br/>class = False>, fillcolor="#e58139"] ;
403 -> 404 ;
405 [label=<gini = 0.0<br/>samples = 1<br/>value = [0, 1]<br/>class = True>, fillcolor="#399de5"] ;
403 -> 405 ;
406 [label=<International plan_Yes &le; 0.5<br/>gini = 0.201<br/>samples = 53<br/>value = [47, 6]<br/>class = False>, fillcolor="#e89152"] ;
378 -> 406 ;
407 [label=<Total day charge &le; 54.23<br/>gini = 0.043<br/>samples = 45<br/>value = [44, 1]<br/>class = False>, fillcolor="#e6843d"] ;
406 -> 407 ;
408 [label=<gini = 0.0<br/>samples = 44<br/>value = [44, 0]<br/>class = False>, fillcolor="#e58139"] ;
407 -> 408 ;
409 [label=<gini = 0.0<br/>samples = 1<br/>value = [0, 1]<br/>class = True>, fillcolor="#399de5"] ;
407 -> 409 ;
410 [label=<Total day minutes &le; 276.3<br/>gini = 0.469<br/>samples = 8<br/>value = [3, 5]<br/>class = True>, fillcolor="#b0d8f5"] ;
406 -> 410 ;
411 [label=<gini = 0.0<br/>samples = 4<br/>value = [0, 4]<br/>class = True>, fillcolor="#399de5"] ;
410 -> 411 ;
412 [label=<State_ME &le; 0.5<br/>gini = 0.375<br/>samples = 4<br/>value = [3, 1]<br/>class = False>, fillcolor="#eeab7b"] ;
410 -> 412 ;
413 [label=<gini = 0.0<br/>samples = 3<br/>value = [3, 0]<br/>class = False>, fillcolor="#e58139"] ;
412 -> 413 ;
414 [label=<gini = 0.0<br/>samples = 1<br/>value = [0, 1]<br/>class = True>, fillcolor="#399de5"] ;
412 -> 414 ;
}